digraph Tree {
node [shape=box, style="filled, rounded", color="black", fontname=helvetica] ;
edge [fontname=helvetica] ;
0 [label="qed <= 0.646\ngini = 0.118\nsamples = 63427\nvalue = [93803, 6325]", fillcolor="#e78946"] ;
1 [label="arocarbo <= 0.5\ngini = 0.414\nsamples = 4424\nvalue = [2069, 4988]", fillcolor="#8bc6f0"] ;
0 -> 1 [labeldistance=2.5, labelangle=45, headlabel="True"] ;
2 [label="laputeASA <= 111.959\ngini = 0.15\nsamples = 333\nvalue = [485, 43]", fillcolor="#e78c4b"] ;
1 -> 2 ;
3 [label="gini = 0.0\nsamples = 300\nvalue = [460, 0]", fillcolor="#e58139"] ;
2 -> 3 ;
4 [label="weight <= 322.525\ngini = 0.465\nsamples = 33\nvalue = [25, 43]", fillcolor="#acd6f4"] ;
2 -> 4 ;
5 [label="(...)", fillcolor="#C0C0C0"] ;
4 -> 5 ;
10 [label="(...)", fillcolor="#C0C0C0"] ;
4 -> 10 ;
29 [label="hallkier <= -2.045\ngini = 0.368\nsamples = 4091\nvalue = [1584, 4945]", fillcolor="#78bced"] ;
1 -> 29 ;
30 [label="hbd <= 3.5\ngini = 0.363\nsamples = 4013\nvalue = [1526, 4875]", fillcolor="#77bced"] ;
29 -> 30 ;
31 [label="(...)", fillcolor="#C0C0C0"] ;
30 -> 31 ;
2392 [label="(...)", fillcolor="#C0C0C0"] ;
30 -> 2392 ;
2753 [label="arohetero <= 2.5\ngini = 0.496\nsamples = 78\nvalue = [58, 70]", fillcolor="#ddeefb"] ;
29 -> 2753 ;
2754 [label="(...)", fillcolor="#C0C0C0"] ;
2753 -> 2754 ;
2809 [label="(...)", fillcolor="#C0C0C0"] ;
2753 -> 2809 ;
2810 [label="arorings <= 2.5\ngini = 0.028\nsamples = 59003\nvalue = [91734, 1337]", fillcolor="#e5833c"] ;
0 -> 2810 [labeldistance=2.5, labelangle=-45, headlabel="False"] ;
2811 [label="rotatable <= 7.5\ngini = 0.003\nsamples = 57269\nvalue = [90235, 124]", fillcolor="#e58139"] ;
2810 -> 2811 ;
2812 [label="logP <= 4.286\ngini = 0.002\nsamples = 57244\nvalue = [90218, 97]", fillcolor="#e58139"] ;
2811 -> 2812 ;
2813 [label="(...)", fillcolor="#C0C0C0"] ;
2812 -> 2813 ;
2912 [label="(...)", fillcolor="#C0C0C0"] ;
2812 -> 2912 ;
2921 [label="laputeASA <= 132.99\ngini = 0.474\nsamples = 25\nvalue = [17, 27]", fillcolor="#b6dbf5"] ;
2811 -> 2921 ;
2922 [label="(...)", fillcolor="#C0C0C0"] ;
2921 -> 2922 ;
2923 [label="(...)", fillcolor="#C0C0C0"] ;
2921 -> 2923 ;
2942 [label="laputeASA <= 113.944\ngini = 0.494\nsamples = 1734\nvalue = [1499, 1213]", fillcolor="#fae7d9"] ;
2810 -> 2942 ;
2943 [label="arocarbo <= 1.5\ngini = 0.074\nsamples = 781\nvalue = [1154, 46]", fillcolor="#e68641"] ;
2942 -> 2943 ;
2944 [label="(...)", fillcolor="#C0C0C0"] ;
2943 -> 2944 ;
2995 [label="(...)", fillcolor="#C0C0C0"] ;
2943 -> 2995 ;
3010 [label="csp3 <= 0.405\ngini = 0.352\nsamples = 953\nvalue = [345, 1167]", fillcolor="#74baed"] ;
2942 -> 3010 ;
3011 [label="(...)", fillcolor="#C0C0C0"] ;
3010 -> 3011 ;
3654 [label="(...)", fillcolor="#C0C0C0"] ;
3010 -> 3654 ;
}